-1.629956662654876709e-01,-3.239602223038673401e-02,5.540884286165237427e-02,2.615784667432308197e-02,-6.714420765638351440e-02,-8.859143708832561970e-04,1.223608478903770447e-01,9.098487347364425659e-02,9.436582028865814209e-02,-6.298365537077188492e-03,-8.086338639259338379e-02,7.166186720132827759e-02,-8.030316233634948730e-02,-1.530099194496870041e-02,6.297973543405532837e-02,9.825596958398818970e-02,8.934398740530014038e-02,1.150990054011344910e-01,2.866645529866218567e-02,-6.940551847219467163e-02,-1.641456931829452515e-01,5.171317607164382935e-02,-8.441019058227539062e-02,2.249331921339035034e-01,-6.727987527847290039e-02,-2.777765877544879913e-02,-1.117387115955352783e-01,-5.894392356276512146e-02,-2.490967139601707458e-02,-5.802059173583984375e-02,-1.226347237825393677e-01,1.006870046257972717e-01,-9.559885412454605103e-02,-2.581102773547172546e-03,6.173959001898765564e-03,6.839307956397533417e-03,-3.373105823993682861e-02,-1.544282957911491394e-02,-4.509055987000465393e-02,1.389387100934982300e-01,-6.559989601373672485e-02,1.443761587142944336e-01,-1.811699196696281433e-02,1.182685270905494690e-01,1.005093902349472046e-01,6.716778874397277832e-02,1.502169519662857056e-01,-7.791191339492797852e-02,-1.711736619472503662e-01,8.692050725221633911e-02,-1.404736787080764771e-01,-6.478787958621978760e-02,8.805692195892333984e-02,-1.082960888743400574e-01,1.525948345661163330e-01,2.267521321773529053e-01,-8.929164707660675049e-02,1.394865065813064575e-01,6.746179610490798950e-02,8.058317750692367554e-02,-1.426930427551269531e-01,-1.382743846625089645e-02,-5.751875415444374084e-02,-1.306074410676956177e-01,-7.373565435409545898e-02,6.545966863632202148e-02,-1.157278474420309067e-02,2.117157578468322754e-01,9.236603975296020508e-03,7.080049812793731689e-02,5.060496553778648376e-02,1.020480990409851074e-01,-4.157009720802307129e-02,6.680147349834442139e-02,9.160827100276947021e-02,-4.091661423444747925e-02,-5.133121833205223083e-02,-6.549073755741119385e-02,1.222637221217155457e-01,-4.894029721617698669e-02,1.080360412597656250e-01,-1.205097883939743042e-01,-4.635438323020935059e-02,1.157332137227058411e-01,3.248830139636993408e-02,-8.543672412633895874e-02,8.737691491842269897e-02,4.087834060192108154e-02,-8.630683273077011108e-02,-7.483061403036117554e-02,3.586509451270103455e-02,-8.572358638048171997e-02,6.096872314810752869e-02,1.666047796607017517e-02,-1.969548873603343964e-02,-1.208809912204742432e-01,1.646472513675689697e-01,-5.683799088001251221e-02,9.781976230442523956e-03,-9.253481030464172363e-02,-4.534482583403587341e-02,9.530451148748397827e-02,-7.258493453264236450e-02,1.266035437583923340e-01,9.555744379758834839e-02,4.327472299337387085e-02,1.567098051309585571e-01,-2.150311693549156189e-02,8.199299871921539307e-02,8.124144375324249268e-02,-1.090391427278518677e-01,-1.319814622402191162e-01,-3.348754718899726868e-02,-7.510704454034566879e-03,1.874951571226119995e-01,8.199717849493026733e-02,-1.250829547643661499e-01,-1.357523500919342041e-01,6.163574010133743286e-02,-5.534702911972999573e-02,1.797670274972915649e-01,8.068427443504333496e-02,8.095920830965042114e-02,-1.066179573535919189e-01,8.796690404415130615e-02,-2.728398516774177551e-02,-9.431385993957519531e-02,-1.076068058609962463e-01,1.952186226844787598e-01,-3.956200927495956421e-02,8.902397006750106812e-02,-1.448608189821243286e-01,1.239238679409027100e-01,-9.451284259557723999e-02,-5.439809337258338928e-02,1.550463140010833740e-01,8.136348798871040344e-03,-3.432677313685417175e-02,-2.657145261764526367e-02,3.659481555223464966e-02,-5.067126080393791199e-02,1.197106912732124329e-01,-1.622435264289379120e-02,-1.587826907634735107e-01,9.131789952516555786e-02,1.473066210746765137e-02,-7.820926606655120850e-03,-5.637248605489730835e-02,-5.620909109711647034e-02,9.329215437173843384e-02,3.890657424926757812e-02,-4.234071075916290283e-02,-1.120295450091362000e-01,-5.816620588302612305e-02,6.967711448669433594e-02,-1.482186764478683472e-01,3.168221935629844666e-02,1.036702916026115417e-01,-4.669667035341262817e-02,-1.739259213209152222e-01,2.429442247375845909e-03,1.014264449477195740e-01,-4.908997565507888794e-02,5.093513987958431244e-03,1.064696311950683594e-01,1.030820906162261963e-01,8.889257907867431641e-02,1.878387629985809326e-01,-6.543038785457611084e-02,-1.147724874317646027e-02,-4.469656944274902344e-02,8.609850704669952393e-02,-2.989272959530353546e-02,-3.186288848519325256e-02,7.937072217464447021e-02,6.327445805072784424e-02,1.195331364870071411e-01,4.611038044095039368e-02,1.248949989676475525e-01,-9.115737676620483398e-02,-1.328087002038955688e-01,-1.389510482549667358e-01,1.307840049266815186e-01,8.569495379924774170e-02,6.006896868348121643e-02,5.030037835240364075e-03,-1.128852963447570801e-01,-2.027595490217208862e-01,1.043984219431877136e-01,1.543624550104141235e-01,-3.117855824530124664e-02,7.186884060502052307e-03,2.065903693437576294e-02,-2.569117583334445953e-02,1.008082553744316101e-01,-5.472521856427192688e-02,-9.432645514607429504e-03,-9.388182312250137329e-02,8.610002696514129639e-02,1.035859808325767517e-01,-1.794380843639373779e-01,2.514197863638401031e-02,-1.514270901679992676e-03,6.101950258016586304e-02,1.527083963155746460e-01,1.468098349869251251e-02,9.775595366954803467e-02,1.586269214749336243e-02,-7.748499512672424316e-02,-7.141659967601299286e-03,9.294402599334716797e-02,9.437024593353271484e-02,7.566200941801071167e-02,1.010412871837615967e-01,1.344433724880218506e-01,8.722325414419174194e-02,-7.574060559272766113e-02,6.383550167083740234e-02,-3.856211900711059570e-03,7.413207739591598511e-02,-2.745398506522178650e-02,1.290729492902755737e-01,1.908713951706886292e-02,-1.474257856607437134e-01,-1.232914030551910400e-01,9.625814855098724365e-02,-2.393314382061362267e-03,-7.771677523851394653e-02,-8.359701605513691902e-04,7.457968592643737793e-02,-1.180256530642509460e-01,7.838997989892959595e-02,-1.140526980161666870e-01,7.312482595443725586e-02,-1.162097230553627014e-01,-1.150816828012466431e-01,-9.955294430255889893e-03,-5.533919483423233032e-02,-9.695735573768615723e-02,2.839349210262298584e-02,-2.934049442410469055e-02,-1.436692476272583008e-01,3.860052302479743958e-02,8.122802525758743286e-02,1.207256987690925598e-01,6.782317161560058594e-02,-1.042606830596923828e-01,-1.974485814571380615e-01,-2.101322822272777557e-02,-1.590407490730285645e-01,-4.350064322352409363e-02,9.769351780414581299e-02,-2.623206004500389099e-02,8.030718564987182617e-02,-4.183664545416831970e-02,-1.859613209962844849e-01,-7.987399399280548096e-02,-1.061072349548339844e-01,8.434966206550598145e-02,-6.476482003927230835e-02,-1.184833869338035583e-01,2.608802355825901031e-02,-1.206324249505996704e-01,1.423316299915313721e-01,-1.947219222784042358e-01,-7.966794818639755249e-02,1.470599789172410965e-02,1.211423706263303757e-02,7.399791385978460312e-03,-9.990634769201278687e-02,-1.325138509273529053e-01,-8.893315494060516357e-02,8.927623927593231201e-02,-1.757286787033081055e-01,1.020834874361753464e-02,-9.017898142337799072e-02,7.602173089981079102e-02,-1.130119990557432175e-02,1.054438874125480652e-01,-1.570169925689697266e-01,-3.254739940166473389e-02,-2.901844680309295654e-02,2.202783524990081787e-02,-7.056263741105794907e-03,-2.264467813074588776e-02,1.368126720190048218e-01,-1.051293537020683289e-01,-2.662268839776515961e-02,-7.247722893953323364e-02,-7.066752761602401733e-02,1.490515470504760742e-02,1.477489024400711060e-01,9.657680988311767578e-02,-9.248439967632293701e-02,-6.925749778747558594e-02,7.217055559158325195e-02,-2.522863261401653290e-02,-1.163917556405067444e-01,4.620196670293807983e-02,-6.060007493942975998e-03,-1.649776101112365723e-01,1.303325742483139038e-01,-8.888825774192810059e-02,-1.425131503492593765e-02,3.583801910281181335e-02,1.530679464340209961e-01,6.490410864353179932e-02,-2.703399024903774261e-02,1.436921861022710800e-02,-4.630058258771896362e-02,-1.098975315690040588e-01,5.625626444816589355e-02,1.030301526188850403e-01,-7.788408547639846802e-02,5.827450379729270935e-02,7.083678990602493286e-02,9.322856366634368896e-02,-6.023527681827545166e-02,5.707025527954101562e-02,3.345755860209465027e-02,-2.020138874650001526e-02,8.199540525674819946e-02,-1.060758680105209351e-01,1.701730675995349884e-02,-7.919278927147388458e-03,-1.107414811849594116e-01,-1.029642596840858459e-01,-1.086058542132377625e-01,-8.036696910858154297e-02,9.047350287437438965e-02,-9.543035179376602173e-02,2.467561140656471252e-02,-8.223810791969299316e-02,1.291743069887161255e-01,1.930991858243942261e-01,-1.139026433229446411e-01,8.623404800891876221e-02,-1.003859788179397583e-01,-1.333524733781814575e-01,2.337680570781230927e-02,-8.540855348110198975e-02,1.149847805500030518e-01,-8.080662041902542114e-02,5.569808185100555420e-03,-1.976830214262008667e-01,-5.368494614958763123e-02,-3.183836117386817932e-02,1.062505170702934265e-01,9.807299822568893433e-02,-1.219140458852052689e-02,-6.859059631824493408e-02,1.269802264869213104e-02,-8.597222715616226196e-02,1.222878620028495789e-01,7.048750668764114380e-02,1.464362740516662598e-01,-1.443376541137695312e-01,-1.636776328086853027e-01,5.871050059795379639e-02,2.999866008758544922e-02,1.436794549226760864e-02,1.201290115714073181e-01,1.472439467906951904e-01,-7.077204436063766479e-02,-1.074782907962799072e-01,-5.381081253290176392e-03,-1.006368696689605713e-01,-4.746472090482711792e-02,-1.590552367269992828e-02,8.001653105020523071e-02,-2.294882982969284058e-01,-6.197815760970115662e-02,1.497470140457153320e-01,2.672234922647476196e-02,8.050813339650630951e-03,2.055132389068603516e-02,1.581426411867141724e-01,1.296451389789581299e-01,4.045154154300689697e-02,-1.928052008152008057e-01,1.230727285146713257e-01,5.535655841231346130e-02,1.250153332948684692e-01,2.487330883741378784e-02,1.105827987194061279e-01,-1.323105543851852417e-01,-6.416324526071548462e-02,-9.398698806762695312e-02,-1.233711391687393188e-01,1.662849262356758118e-02,1.745021790266036987e-01,6.001573801040649414e-02,-9.485930949449539185e-02,-6.369583308696746826e-02,1.136139556765556335e-01,-6.627593189477920532e-02,-1.008165106177330017e-01,-1.053188294172286987e-01,-3.295513615012168884e-02,-1.268286854028701782e-01,-3.436914086341857910e-02,2.050300501286983490e-02,8.493893593549728394e-02,9.258318692445755005e-02,8.306396007537841797e-02,-3.538205474615097046e-02,-1.472325026988983154e-01,-9.025220572948455811e-02,-8.556888252496719360e-02,4.833267629146575928e-02,1.170208007097244263e-01,-2.681972086429595947e-02,1.066512763500213623e-01,-3.557254746556282043e-02,7.975280284881591797e-02,1.497623622417449951e-01,1.015093103051185608e-01,2.995859459042549133e-02,7.626781612634658813e-02,-1.145698577165603638e-01,1.986194774508476257e-02,3.850557282567024231e-02,-1.456135958433151245e-01,2.569415792822837830e-02,1.270538568496704102e-01,2.672583237290382385e-02,-8.958318084478378296e-02,1.148474141955375671e-01,6.830533500760793686e-03,9.083317965269088745e-02,1.643096469342708588e-02,-1.336206942796707153e-01,4.475975036621093750e-02,-1.231843605637550354e-01,6.074462085962295532e-02,6.942678242921829224e-02,-7.172388583421707153e-02,4.773356392979621887e-02,6.172315776348114014e-02,-8.366947621107101440e-02,-7.303709536790847778e-02,3.272012993693351746e-02,6.521755456924438477e-02,3.397275228053331375e-03,-1.070931926369667053e-01,-1.431840658187866211e-01,4.513026028871536255e-02,9.009476006031036377e-02,7.188882678747177124e-02,-6.128036230802536011e-02,-1.426762938499450684e-01,-4.076614975929260254e-02,1.960038207471370697e-02,7.917101494967937469e-03,1.521665602922439575e-01,-6.708979606628417969e-02,9.647966921329498291e-02,5.564931035041809082e-02,9.708902984857559204e-02,1.189406290650367737e-01,6.601901352405548096e-02,-1.413027942180633545e-01,1.584711112082004547e-02,1.333075854927301407e-02,8.842837065458297729e-02,-8.153688162565231323e-02,-1.656184643507003784e-01,-3.079214505851268768e-02,-1.314713656902313232e-01,-7.197280228137969971e-02,-8.884508162736892700e-02,2.952121431007981300e-03,1.343619227409362793e-01,-6.441240198910236359e-03,-1.112849339842796326e-01,-1.683221757411956787e-01,3.005337715148925781e-02,3.730636090040206909e-02,1.032406762242317200e-01,1.233261078596115112e-01,-1.815536804497241974e-02,1.062889248132705688e-01,1.044306308031082153e-01,2.324873814359307289e-03,-1.386123001575469971e-01,3.450742363929748535e-02,1.563521474599838257e-01,-4.241035133600234985e-02,-9.724006801843643188e-02,-5.166492611169815063e-02,-1.358680427074432373e-01,-8.903051912784576416e-02,1.984166204929351807e-01,7.365824282169342041e-02,-7.951413094997406006e-02,-1.472951192408800125e-02,1.129616796970367432e-02,1.252364069223403931e-01,-4.152915626764297485e-02,1.323136538267135620e-01,1.542143803089857101e-02,4.898464679718017578e-02,-1.264114677906036377e-01,-4.363291338086128235e-02,4.626687616109848022e-02,-5.920098349452018738e-02,-5.533538013696670532e-02,1.946721784770488739e-02,1.131589263677597046e-01,-6.213294342160224915e-02,1.166270598769187927e-01,-4.011853411793708801e-02,2.877962077036499977e-03,-3.378508612513542175e-03,-9.701590985059738159e-02,-3.487098962068557739e-02,9.088381379842758179e-02,9.616270661354064941e-02,4.311482980847358704e-02,-1.026650369167327881e-01,8.731047622859477997e-03,1.343682855367660522e-01,6.847994029521942139e-02,-1.878181546926498413e-01,1.054371371865272522e-01,-5.143368151038885117e-03,-9.857267886400222778e-02,-7.437767833471298218e-02,-1.455343812704086304e-01,-8.745028823614120483e-02,-1.086906418204307556e-01,-1.464978456497192383e-01,-1.073805764317512512e-01,-1.837622374296188354e-02,-1.207790076732635498e-01,-1.398440301418304443e-01,1.637912355363368988e-02,-5.713142827153205872e-02,8.541472256183624268e-02,-3.603241592645645142e-02,3.987804800271987915e-02,-3.690776973962783813e-02,7.574272900819778442e-02,8.756747841835021973e-02,-1.539420485496520996e-01,-3.847156092524528503e-02,-1.471841037273406982e-01,-7.536005973815917969e-02,9.982999414205551147e-03,3.129310905933380127e-02,1.007864475250244141e-01,-5.870176106691360474e-02,-2.980908751487731934e-02,-1.630091071128845215e-01,-1.214649453759193420e-01,-8.981399238109588623e-02,9.067489206790924072e-02,9.347057342529296875e-02,-1.354236602783203125e-01,-2.945027686655521393e-02,-1.110961139202117920e-01,-1.558536738157272339e-01,-1.700429767370223999e-01,-2.105033583939075470e-02,1.068846583366394043e-01,1.248903498053550720e-01,-5.946933850646018982e-02,1.062148362398147583e-01,1.444876044988632202e-01,-1.288922280073165894e-01,-4.182481765747070312e-02,-3.536691889166831970e-02,4.680550843477249146e-02,1.400654166936874390e-01,1.183914914727210999e-01,1.093465089797973633e-01,-2.547328593209385872e-03,9.979709237813949585e-02,2.950643748044967651e-02,1.608572453260421753e-01,1.069726720452308655e-01,-2.175506763160228729e-02,-7.888186722993850708e-02,-1.179189532995223999e-01,1.264973282814025879e-01,-1.561141610145568848e-01,1.165966093540191650e-01,1.161015406250953674e-01,5.233348906040191650e-02,3.151836618781089783e-02,1.154816448688507080e-01,1.548895537853240967e-01,-5.290518701076507568e-02,-3.346174489706754684e-03,-9.345065802335739136e-02,-2.298671519383788109e-03,-4.018798470497131348e-02,-1.317696273326873779e-01,1.319485306739807129e-01,6.069185677915811539e-03,1.710057072341442108e-02,-2.972728572785854340e-02,5.185773596167564392e-02,-7.555142045021057129e-02,-6.121143233031034470e-03,-6.099684908986091614e-02,4.431132227182388306e-03,6.019227579236030579e-02,-1.521209031343460083e-01,-1.018238589167594910e-01,8.172743022441864014e-02,9.514944255352020264e-02,1.645996570587158203e-01,8.303880691528320312e-02,-1.577949076890945435e-01,-1.251170784235000610e-01,1.140069216489791870e-01,7.141324877738952637e-02,1.638781651854515076e-02,-4.453152045607566833e-02,-1.422411650419235229e-01,-8.308992534875869751e-02,1.465007849037647247e-02,7.339128106832504272e-02,-1.994941942393779755e-02,9.963802248239517212e-02,-1.062844917178153992e-01,-1.109947115182876587e-01,-5.842838808894157410e-02,2.256595157086849213e-02,-1.004265546798706055e-01,7.324409484863281250e-02,-3.022615052759647369e-02,-7.079342752695083618e-02,-3.073179721832275391e-02,-9.473062306642532349e-02,-5.017092823982238770e-02,3.300577029585838318e-02,-3.367398679256439209e-02,-1.076960191130638123e-01,-4.316637665033340454e-02,8.010043203830718994e-02,7.391047547571361065e-04,-6.362919509410858154e-02,-1.489804536104202271e-01,3.756022825837135315e-02,-1.129171326756477356e-01,-1.797755956649780273e-01,-5.146449804306030273e-02,4.619438573718070984e-02,-1.220226287841796875e-01,-4.874643683433532715e-02,-4.783035814762115479e-02,-8.178326534107327461e-04,1.648758053779602051e-01,1.347664296627044678e-01,-1.677876524627208710e-02,9.003871679306030273e-02,-2.102189958095550537e-01,4.974732547998428345e-02,-5.478700250387191772e-02,-4.740997031331062317e-02,1.929444633424282074e-02,-8.414173126220703125e-02,-7.331929355859756470e-02,-1.282092481851577759e-01,-6.189313530921936035e-02,-1.513744443655014038e-01,-1.908999681472778320e-02,-1.449372023344039917e-01,1.206746920943260193e-01,1.194673329591751099e-01,-7.455738633871078491e-02,-1.002905741333961487e-01,-1.720662415027618408e-02,-3.735538572072982788e-02,1.085006296634674072e-01,-1.139307022094726562e-01,4.622581973671913147e-02,-1.375673245638608932e-02,-7.397663313895463943e-03,8.422899991273880005e-02,9.391600638628005981e-02,-1.810844428837299347e-02,-1.176640465855598450e-01,-1.125675216317176819e-01,-9.098688513040542603e-02,1.098667308688163757e-01,4.520444199442863464e-02,-8.084452897310256958e-02,-8.909092843532562256e-02,1.235351935029029846e-01,-1.084165349602699280e-01,-6.353866308927536011e-02,7.831679284572601318e-02,-1.106048524379730225e-01,-5.632467567920684814e-02,1.288074851036071777e-01,1.062531396746635437e-01,7.204845547676086426e-02,6.432724744081497192e-02,-7.688974589109420776e-02,-4.221272841095924377e-02,4.914039000868797302e-02,-1.326461285352706909e-01,1.215499863028526306e-01,-6.748656183481216431e-02,-1.491274237632751465e-01,1.439681053161621094e-01,-2.179842675104737282e-03,-1.862474083900451660e-01,-7.781882584095001221e-02,1.545944213867187500e-01,7.716410607099533081e-02,-1.239789649844169617e-01,-8.660670369863510132e-02,2.530234679579734802e-02,-2.345184609293937683e-02,7.730296999216079712e-02,1.837023496627807617e-01,4.690428823232650757e-02,6.268136948347091675e-02,-3.635737299919128418e-02,-1.410043686628341675e-01,7.627898454666137695e-02,-1.547964662313461304e-01,5.076223984360694885e-02,8.712626993656158447e-02,-9.685989469289779663e-02,1.343112885951995850e-01,1.505081653594970703e-01,1.665339469909667969e-01,1.150010228157043457e-01,4.283863678574562073e-02,-8.453095704317092896e-02,-1.144739799201488495e-02,-1.111563220620155334e-01,5.026992037892341614e-02,1.102722957730293274e-01,-6.495840102434158325e-02,-4.110810905694961548e-02,-1.555844545364379883e-01,-1.792009919881820679e-02,-9.054591506719589233e-02,1.179605051875114441e-01,-1.189549043774604797e-01,-2.656652824953198433e-03,1.448092889040708542e-02,-1.541266739368438721e-01,-5.121327564120292664e-02,-1.387339457869529724e-02,-8.800546079874038696e-02,1.144972592592239380e-01,1.352425962686538696e-01,-3.357958197593688965e-01,-9.720189869403839111e-02,-7.726048585027456284e-03,7.830826193094253540e-02,-1.633387058973312378e-01,-3.220318257808685303e-02,1.938641965389251709e-01,1.354231536388397217e-01,-1.342326700687408447e-01,1.785714477300643921e-01,-1.239475607872009277e-02,6.990598887205123901e-02,-3.377678990364074707e-02,-5.844686552882194519e-02,-1.053901314735412598e-01,-1.268968433141708374e-01,5.877170711755752563e-02,1.496318280696868896e-01,-1.527151316404342651e-01,1.116915494203567505e-01,1.135795637965202332e-01,-3.284996002912521362e-02,7.852201908826828003e-02,6.858369708061218262e-02,1.359825208783149719e-02,-3.715182468295097351e-02,4.724244028329849243e-02,-9.414048865437507629e-03,-1.143374741077423096e-01,8.422595262527465820e-02,1.158793047070503235e-01,1.597178429365158081e-01,-1.297705620527267456e-01,7.985109090805053711e-02,1.480784267187118530e-01,1.217604503035545349e-01,1.118118613958358765e-01,-1.303473720327019691e-03,-1.105998158454895020e-01,-1.445966958999633789e-01,-1.641146652400493622e-02,1.155513059347867966e-02,6.658712029457092285e-02,-1.348901540040969849e-01,8.252476900815963745e-02,-5.584859848022460938e-02,9.775193408131599426e-03,4.100209102034568787e-02,7.927395403385162354e-03,-8.217537775635719299e-03,1.392034143209457397e-01,1.287552565336227417e-01,1.030630171298980713e-01,-1.345703750848770142e-01,-9.640678018331527710e-02,-8.044864982366561890e-02,-1.457318812608718872e-01,-3.417699411511421204e-02,1.755266636610031128e-01,-6.131638307124376297e-03,1.348209679126739502e-01,1.215366572141647339e-01,-1.622083336114883423e-01,1.230287030339241028e-01,-1.019099280238151550e-01,-6.603807210922241211e-02,-4.074059426784515381e-02,1.496021300554275513e-01,-4.147934168577194214e-02,-1.550047695636749268e-01,-1.467077881097793579e-01,1.166404113173484802e-01,5.943808704614639282e-02,1.774139851331710815e-01,8.959951251745223999e-02,-1.492100954055786133e-01,-7.668489217758178711e-02,1.033738106489181519e-01,1.317762210965156555e-02,-6.071594730019569397e-02,-1.056866273283958435e-01,5.441438406705856323e-02,-4.381844401359558105e-02,3.300396725535392761e-02,-2.066280879080295563e-02,-5.933902412652969360e-02,1.448389440774917603e-01,-5.270152539014816284e-02,6.893803924322128296e-02,-5.422683805227279663e-02,2.011265419423580170e-02,-3.205618355423212051e-03,-1.633392721414566040e-01,1.062591820955276489e-01,1.232319176197052002e-01,-6.386708468198776245e-02,-1.074903458356857300e-01,-7.619328051805496216e-02,8.178609423339366913e-03,1.103633195161819458e-01,-3.065822832286357880e-02,6.940393149852752686e-02,-4.541236441582441330e-03,5.785709246993064880e-02,-3.832954540848731995e-02,1.385506689548492432e-01,-1.820723153650760651e-02,-5.739699583500623703e-03,9.219955652952194214e-02,1.049227863550186157e-01